{
    "bias": -0.9920000000000007,
    "iterations": 3000,
    "learning_rate": 0.001,
    "weight": {
        "value": [
            0.6550000000000005,
            0.6440000000000005,
            -0.07700000000000008,
            1.159999999999983,
            0.2270000000000002,
            -1.2679999999999712,
            -1.7619999999999167,
            -0.04000000000000003,
            0.8700000000000007,
            2.0019999999998905,
            0.7480000000000006,
            0.6550000000000005,
            0.7620000000000006,
            1.014999999999999,
            0.19900000000000015,
            0.6380000000000005,
            0.8410000000000006,
            0.9270000000000007,
            0.02799999999999997,
            0.11500000000000009,
            1.6469999999999294,
            -0.010000000000000002,
            -0.16900000000000012,
            0.3820000000000003,
            0.3970000000000003,
            0.16700000000000012,
            2.2039999999998683,
            -0.12500000000000008,
            1.714999999999922,
            1.4279999999999535,
            -2.404999999999846,
            0.20800000000000016,
            -0.06900000000000005,
            0.7280000000000005,
            1.877999999999904,
            0.6690000000000005,
            0.20700000000000016,
            0.16100000000000012,
            -0.44800000000000034,
            -0.17100000000000015,
            0.5030000000000003,
            0.5100000000000003,
            -0.6780000000000005,
            0.9620000000000007,
            0.3770000000000003,
            2.1679999999998723,
            0.2880000000000002,
            -0.6780000000000005,
            0.6870000000000005,
            -0.6020000000000004,
            0.9630000000000007,
            0.2670000000000002,
            1.105999999999989,
            -2.2759999999998604,
            0.21200000000000013,
            0.12600000000000008,
            0.11900000000000009,
            1.2099999999999775,
            0.8490000000000006,
            1.395999999999957,
            -1.1999999999999786,
            0.5600000000000004,
            0.6860000000000005,
            -0.6660000000000005,
            -0.6440000000000005,
            0.9430000000000007,
            1.5519999999999399,
            0.9410000000000007,
            0.08800000000000006,
            0.11100000000000008,
            0.7060000000000005,
            0.36400000000000027,
            -0.06400000000000004,
            0.7490000000000006,
            0.1340000000000001,
            0.0049999999999999515,
            -0.9690000000000007,
            -0.36200000000000027,
            1.4269999999999536,
            -0.6630000000000005,
            -1.1079999999999888,
            -0.4170000000000003,
            0.8020000000000006,
            -0.8580000000000007,
            1.015999999999999,
            2.015999999999889,
            0.4710000000000004,
            0.38200000000000023,
            0.6610000000000005,
            0.23900000000000016,
            -1.596999999999935,
            1.1199999999999875,
            2.316999999999856,
            -0.19200000000000014,
            -0.8990000000000007,
            -1.558999999999939,
            -0.5680000000000004,
            0.33400000000000024,
            -0.004000000000000049,
            0.3810000000000003,
            -0.7900000000000006,
            -0.12600000000000014,
            -0.7280000000000005,
            0.7910000000000006,
            1.1679999999999822,
            0.45700000000000035,
            0.7220000000000005,
            0.33400000000000024,
            -1.3549999999999616,
            1.2649999999999715,
            -0.34300000000000025,
            -0.3250000000000003,
            0.23000000000000018,
            1.2889999999999688,
            2.2759999999998604,
            -0.6550000000000005,
            0.4600000000000003,
            -1.2629999999999717,
            1.404999999999956,
            0.34000000000000025,
            -1.4539999999999507,
            -2.307999999999857,
            -0.7960000000000007,
            -2.297999999999858,
            0.9340000000000007,
            -0.6030000000000004,
            -0.8680000000000007,
            -0.6660000000000005,
            0.7470000000000006,
            0.4480000000000003,
            0.3710000000000003,
            0.09600000000000007,
            0.8830000000000007,
            0.35100000000000026,
            0.10800000000000007,
            0.5780000000000004,
            0.20200000000000015,
            1.704999999999923,
            0.10500000000000008,
            0.45400000000000035,
            0.6780000000000005,
            -0.24600000000000016,
            1.840999999999908,
            2.086999999999881,
            0.6650000000000005,
            -0.14200000000000013,
            0.29400000000000015,
            -0.4950000000000004,
            -1.0139999999999991,
            0.6460000000000005,
            -0.9160000000000007,
            -0.2870000000000002,
            -0.20100000000000015,
            0.1410000000000001,
            -0.6500000000000005,
            1.478999999999948,
            0.5670000000000004,
            -0.6280000000000006,
            0.20400000000000013,
            -0.16100000000000012,
            2.0009999999998906,
            0.8740000000000007,
            0.16800000000000012,
            -0.026000000000000016,
            -0.9960000000000008,
            -0.12300000000000015,
            0.5030000000000003,
            1.3489999999999622,
            -0.22200000000000017,
            0.5870000000000004,
            2.8009999999998025,
            -0.07600000000000011,
            0.6610000000000006,
            0.6030000000000004,
            0.00899999999999998,
            1.1929999999999794,
            0.9980000000000008,
            1.3479999999999623,
            1.5519999999999399,
            -0.7190000000000005,
            1.7179999999999216,
            -1.115999999999988,
            0.3990000000000003,
            -0.1460000000000001,
            -0.10200000000000008,
            0.3860000000000003,
            0.4970000000000004,
            0.7520000000000006,
            1.1999999999999786,
            0.25400000000000017,
            -0.9920000000000008,
            1.0949999999999902,
            1.269999999999971,
            1.7199999999999214,
            0.10200000000000008,
            1.1649999999999825,
            2.034999999999887,
            0.1490000000000001,
            0.4500000000000003,
            -0.6730000000000005
        ]
    }
}